<?xml version="1.0" encoding="UTF-8"?><PMML version="4.2" xmlns="http://www.dmg.org/PMML-4_2" xmlns:xsi="http://www.w3.org/2001/XMLSchema-instance" xsi:schemaLocation="http://www.dmg.org/PMML-4_2 http://www.dmg.org/v4-2-1/pmml-4-2.xsd"><Header copyright="(c) Copyright IBM Corp. 2011, 2012" description="randomTrees"><Application name="Analytic-Engine" version="3.0.0.0-131"></Application><Timestamp>Wed Sep 7 9:22:52 2022</Timestamp></Header><DataDictionary numberOfFields="54"><DataField name="Circularity" displayName="Circularity" optype="continuous" dataType="double"></DataField><DataField name="Perimeter" displayName="Perimeter" optype="continuous" dataType="double"></DataField><DataField name="Convexity" displayName="Convexity" optype="continuous" dataType="double"></DataField><DataField name="Extend" displayName="Extend" optype="continuous" dataType="double"></DataField><DataField name="Diameter" displayName="Diameter" optype="continuous" dataType="double"></DataField><DataField name="Area" displayName="Area" optype="continuous" dataType="double"></DataField><DataField name="Circularity_#2" displayName="Circularity_#2" optype="continuous" dataType="double"></DataField><DataField name="Convexity_#2" displayName="Convexity_#2" optype="continuous" dataType="double"></DataField><DataField name="Eccentricity" displayName="Eccentricity" optype="continuous" dataType="double"></DataField><DataField name="Main_Elongation" displayName="Main_Elongation" optype="continuous" dataType="double"></DataField><DataField name="Zeta_Prediction" displayName="Zeta_Prediction" optype="continuous" dataType="double"></DataField><DataField name="Minimum_Ferets_Diameter" displayName="Minimum_Ferets_Diameter" optype="continuous" dataType="double"></DataField><DataField name="Maximum_Ferets_Diameter" displayName="Maximum_Ferets_Diameter" optype="continuous" dataType="double"></DataField><DataField name="Major_Axis" displayName="Major_Axis" optype="continuous" dataType="double"></DataField><DataField name="Minor_Axis" displayName="Minor_Axis" optype="continuous" dataType="double"></DataField><DataField name="Boundary_Size" displayName="Boundary_Size" optype="continuous" dataType="double"></DataField><DataField name="Boxivity" displayName="Boxivity" optype="continuous" dataType="double"></DataField><DataField name="Roundness" displayName="Roundness" optype="continuous" dataType="double"></DataField><DataField name="Solidity" displayName="Solidity" optype="continuous" dataType="double"></DataField><DataField name="logD" displayName="logD" optype="continuous" dataType="double"></DataField><DataField name="solubility" displayName="solubility" optype="continuous" dataType="double"></DataField><DataField name="Minimum_projection_area" displayName="Minimum_projection_area" optype="continuous" dataType="double"></DataField><DataField name="Maximum_projection_area" displayName="Maximum_projection_area" optype="continuous" dataType="double"></DataField><DataField name="Minimum_projection_radius" displayName="Minimum_projection_radius" optype="continuous" dataType="double"></DataField><DataField name="Polarizability" displayName="Polarizability" optype="continuous" dataType="double"></DataField><DataField name="MaxEStateIndex" displayName="MaxEStateIndex" optype="continuous" dataType="double"></DataField><DataField name="MinEStateIndex" displayName="MinEStateIndex" optype="continuous" dataType="double"></DataField><DataField name="MinAbsEStateIndex" displayName="MinAbsEStateIndex" optype="continuous" dataType="double"></DataField><DataField name="FpDensityMorgan1" displayName="FpDensityMorgan1" optype="continuous" dataType="double"></DataField><DataField name="BalabanJ" displayName="BalabanJ" optype="continuous" dataType="double"></DataField><DataField name="Chi0v" displayName="Chi0v" optype="continuous" dataType="double"></DataField><DataField name="HallKierAlpha" displayName="HallKierAlpha" optype="continuous" dataType="double"></DataField><DataField name="Kappa1" displayName="Kappa1" optype="continuous" dataType="double"></DataField><DataField name="Kappa3" displayName="Kappa3" optype="continuous" dataType="double"></DataField><DataField name="SlogP_VSA3" displayName="SlogP_VSA3" optype="continuous" dataType="double"></DataField><DataField name="EState_VSA1" displayName="EState_VSA1" optype="continuous" dataType="double"></DataField><DataField name="EState_VSA2" displayName="EState_VSA2" optype="continuous" dataType="double"></DataField><DataField name="EState_VSA8" displayName="EState_VSA8" optype="continuous" dataType="double"></DataField><DataField name="EState_VSA9" displayName="EState_VSA9" optype="continuous" dataType="double"></DataField><DataField name="MolMR" displayName="MolMR" optype="continuous" dataType="double"></DataField><DataField name="Formation_Energy" displayName="Formation_Energy" optype="continuous" dataType="double"></DataField><DataField name="Band_Gap" displayName="Band_Gap" optype="continuous" dataType="double"></DataField><DataField name="Volume" displayName="Volume" optype="continuous" dataType="double"></DataField><DataField name="Count" displayName="Count" optype="continuous" dataType="double"></DataField><DataField name="Density" displayName="Density" optype="continuous" dataType="double"></DataField><DataField name="Amount_of_molecular_in_NP" displayName="Amount_of_molecular_in_NP" optype="continuous" dataType="double"></DataField><DataField name="Crystal_ionic_radii" displayName="Crystal_ionic_radii" optype="continuous" dataType="double"></DataField><DataField name="NP_volume" displayName="NP_volume" optype="continuous" dataType="double"></DataField><DataField name="Primary_size" displayName="Primary_size" optype="continuous" dataType="double"></DataField><DataField name="Exposure_time" displayName="Exposure_time" optype="continuous" dataType="double"></DataField><DataField name="Plant_growth" displayName="Plant_growth" optype="continuous" dataType="double"></DataField><DataField name="NP_concentration" displayName="NP_concentration" optype="continuous" dataType="double"></DataField><DataField name="Change_percent" displayName="Change_percent" optype="continuous" dataType="double"></DataField><DataField name="Partition" displayName="Partition" optype="categorical" dataType="string"><Value value="Training" displayValue="Training" property="valid"></Value><Value value="Testing" displayValue="Testing" property="valid"></Value></DataField></DataDictionary><MiningModel functionName="regression"><Extension extender="spss.com" name="modelID" value="scalableRandomTrees_Model"></Extension><MiningSchema><MiningField name="Perimeter" usageType="active" missingValueReplacement="0.0" invalidValueTreatment="asMissing"></MiningField><MiningField name="Extend" usageType="active" missingValueReplacement="0.0" invalidValueTreatment="asMissing"></MiningField><MiningField name="Diameter" usageType="active" missingValueReplacement="0.0" invalidValueTreatment="asMissing"></MiningField><MiningField name="Area" usageType="active" missingValueReplacement="0.0" invalidValueTreatment="asMissing"></MiningField><MiningField name="Circularity_#2" usageType="active" missingValueReplacement="-0.083333333" invalidValueTreatment="asMissing"></MiningField><MiningField name="Minimum_Ferets_Diameter" usageType="active" missingValueReplacement="0.017670157" invalidValueTreatment="asMissing"></MiningField><MiningField name="Maximum_Ferets_Diameter" usageType="active" missingValueReplacement="0.0" invalidValueTreatment="asMissing"></MiningField><MiningField name="Major_Axis" usageType="active" missingValueReplacement="0.0" invalidValueTreatment="asMissing"></MiningField><MiningField name="Minor_Axis" usageType="active" missingValueReplacement="0.002083643" invalidValueTreatment="asMissing"></MiningField><MiningField name="Boundary_Size" usageType="active" missingValueReplacement="0.0" invalidValueTreatment="asMissing"></MiningField><MiningField name="Roundness" usageType="active" missingValueReplacement="0.0" invalidValueTreatment="asMissing"></MiningField><MiningField name="logD" usageType="active" missingValueReplacement="0.0" invalidValueTreatment="asMissing"></MiningField><MiningField name="solubility" usageType="active" missingValueReplacement="0.0" invalidValueTreatment="asMissing"></MiningField><MiningField name="Minimum_projection_area" usageType="active" missingValueReplacement="-0.003162358" invalidValueTreatment="asMissing"></MiningField><MiningField name="Maximum_projection_area" usageType="active" missingValueReplacement="0.0" invalidValueTreatment="asMissing"></MiningField><MiningField name="Polarizability" usageType="active" missingValueReplacement="-0.019145704" invalidValueTreatment="asMissing"></MiningField><MiningField name="MaxEStateIndex" usageType="active" missingValueReplacement="0.0" invalidValueTreatment="asMissing"></MiningField><MiningField name="MinEStateIndex" usageType="active" missingValueReplacement="0.0" invalidValueTreatment="asMissing"></MiningField><MiningField name="MinAbsEStateIndex" usageType="active" missingValueReplacement="0.0" invalidValueTreatment="asMissing"></MiningField><MiningField name="FpDensityMorgan1" usageType="active" missingValueReplacement="-0.008538245" invalidValueTreatment="asMissing"></MiningField><MiningField name="BalabanJ" usageType="active" missingValueReplacement="0.0" invalidValueTreatment="asMissing"></MiningField><MiningField name="Chi0v" usageType="active" missingValueReplacement="0.0" invalidValueTreatment="asMissing"></MiningField><MiningField name="HallKierAlpha" usageType="active" missingValueReplacement="0.0" invalidValueTreatment="asMissing"></MiningField><MiningField name="Kappa1" usageType="active" missingValueReplacement="0.0" invalidValueTreatment="asMissing"></MiningField><MiningField name="Kappa3" usageType="active" missingValueReplacement="0.0" invalidValueTreatment="asMissing"></MiningField><MiningField name="SlogP_VSA3" usageType="active" missingValueReplacement="0.0" invalidValueTreatment="asMissing"></MiningField><MiningField name="EState_VSA1" usageType="active" missingValueReplacement="0.0" invalidValueTreatment="asMissing"></MiningField><MiningField name="EState_VSA2" usageType="active" missingValueReplacement="0.0" invalidValueTreatment="asMissing"></MiningField><MiningField name="EState_VSA8" usageType="active" missingValueReplacement="0.0" invalidValueTreatment="asMissing"></MiningField><MiningField name="EState_VSA9" usageType="active" missingValueReplacement="0.0" invalidValueTreatment="asMissing"></MiningField><MiningField name="MolMR" usageType="active" missingValueReplacement="0.027333006" invalidValueTreatment="asMissing"></MiningField><MiningField name="Band_Gap" usageType="active" missingValueReplacement="0.0" invalidValueTreatment="asMissing"></MiningField><MiningField name="Volume" usageType="active" missingValueReplacement="0.0" invalidValueTreatment="asMissing"></MiningField><MiningField name="Count" usageType="active" missingValueReplacement="0.0" invalidValueTreatment="asMissing"></MiningField><MiningField name="Density" usageType="active" missingValueReplacement="0.0" invalidValueTreatment="asMissing"></MiningField><MiningField name="Amount_of_molecular_in_NP" usageType="active" missingValueReplacement="0.0" invalidValueTreatment="asMissing"></MiningField><MiningField name="Crystal_ionic_radii" usageType="active" missingValueReplacement="0.0" invalidValueTreatment="asMissing"></MiningField><MiningField name="NP_volume" usageType="active" missingValueReplacement="0.0" invalidValueTreatment="asMissing"></MiningField><MiningField name="Primary_size" usageType="active" missingValueReplacement="0.0" invalidValueTreatment="asMissing"></MiningField><MiningField name="Exposure_time" usageType="active" missingValueReplacement="0.0" invalidValueTreatment="asMissing"></MiningField><MiningField name="Plant_growth" usageType="active" missingValueReplacement="0.0" invalidValueTreatment="asMissing"></MiningField><MiningField name="NP_concentration" usageType="active" missingValueReplacement="0.0" invalidValueTreatment="asMissing"></MiningField><MiningField name="Change_percent" usageType="predicted" invalidValueTreatment="asMissing"></MiningField></MiningSchema><Segmentation multipleModelMethod="average"><Segment id="1"><True></True><TreeModel functionName="regression" splitCharacteristic="binarySplit"><MiningSchema><MiningField name="Extend" usageType="active" missingValueReplacement="0.0" invalidValueTreatment="asMissing"></MiningField><MiningField name="Circularity_#2" usageType="active" missingValueReplacement="-0.083333333" invalidValueTreatment="asMissing"></MiningField><MiningField name="Minimum_Ferets_Diameter" usageType="active" missingValueReplacement="0.017670157" invalidValueTreatment="asMissing"></MiningField><MiningField name="Major_Axis" usageType="active" missingValueReplacement="0.0" invalidValueTreatment="asMissing"></MiningField><MiningField name="Roundness" usageType="active" missingValueReplacement="0.0" invalidValueTreatment="asMissing"></MiningField><MiningField name="Minimum_projection_area" usageType="active" missingValueReplacement="-0.003162358" invalidValueTreatment="asMissing"></MiningField><MiningField name="HallKierAlpha" usageType="active" missingValueReplacement="0.0" invalidValueTreatment="asMissing"></MiningField><MiningField name="Kappa3" usageType="active" missingValueReplacement="0.0" invalidValueTreatment="asMissing"></MiningField><MiningField name="EState_VSA8" usageType="active" missingValueReplacement="0.0" invalidValueTreatment="asMissing"></MiningField><MiningField name="Exposure_time" usageType="active" missingValueReplacement="0.0" invalidValueTreatment="asMissing"></MiningField><MiningField name="Plant_growth" usageType="active" missingValueReplacement="0.0" invalidValueTreatment="asMissing"></MiningField><MiningField name="NP_concentration" usageType="active" missingValueReplacement="0.0" invalidValueTreatment="asMissing"></MiningField><MiningField name="Change_percent" usageType="predicted" invalidValueTreatment="asMissing"></MiningField></MiningSchema><Node id="1"><True></True><Node id="2"><SimplePredicate field="EState_VSA8" operator="lessOrEqual" value="14.83964305"></SimplePredicate><Node id="4"><SimplePredicate field="Circularity_#2" operator="lessOrEqual" value="-0.083333333"></SimplePredicate><Node id="8"><SimplePredicate field="HallKierAlpha" operator="lessOrEqual" value="1.116104999"></SimplePredicate><Node id="16"><SimplePredicate field="Exposure_time" operator="lessOrEqual" value="0.636363636"></SimplePredicate><Node id="32" score="0.12063492063492061"><SimplePredicate field="Major_Axis" operator="lessOrEqual" value="1.234395334"></SimplePredicate></Node><Node id="33" score="-0.1825"><True></True></Node></Node><Node id="17"><True></True><Node id="34" score="0.26363636363636367"><SimplePredicate field="Minimum_projection_area" operator="lessOrEqual" value="2.6402478"></SimplePredicate></Node><Node id="35" score="0.6699999999999999"><True></True></Node></Node></Node><Node id="9" score="1.1700000000000002"><True></True></Node></Node><Node id="5"><True></True><Node id="10"><SimplePredicate field="Minimum_Ferets_Diameter" operator="lessOrEqual" value="0.979057592"></SimplePredicate><Node id="20" score="0.13999999999999999"><SimplePredicate field="Kappa3" operator="lessOrEqual" value="-0.320553929"></SimplePredicate></Node><Node id="21"><True></True><Node id="42" score="5.088522196198634E-18"><SimplePredicate field="Roundness" operator="lessOrEqual" value="0.0"></SimplePredicate></Node><Node id="43" score="-0.17115384615384616"><True></True></Node></Node></Node><Node id="11" score="0.435"><True></True></Node></Node></Node><Node id="3"><True></True><Node id="6" score="-0.025999999999999978"><SimplePredicate field="Extend" operator="lessOrEqual" value="0.166666667"></SimplePredicate></Node><Node id="7"><True></True><Node id="14"><SimplePredicate field="NP_concentration" operator="lessOrEqual" value="0.263157895"></SimplePredicate><Node id="28" score="-0.205"><SimplePredicate field="Plant_growth" operator="lessOrEqual" value="0.952380952"></SimplePredicate></Node><Node id="29" score="-0.14"><True></True></Node></Node><Node id="15" score="-0.48125000000000007"><True></True></Node></Node></Node></Node></TreeModel></Segment><Segment id="2"><True></True><TreeModel functionName="regression" splitCharacteristic="binarySplit"><MiningSchema><MiningField name="Extend" usageType="active" missingValueReplacement="0.0" invalidValueTreatment="asMissing"></MiningField><MiningField name="Area" usageType="active" missingValueReplacement="0.0" invalidValueTreatment="asMissing"></MiningField><MiningField name="Circularity_#2" usageType="active" missingValueReplacement="-0.083333333" invalidValueTreatment="asMissing"></MiningField><MiningField name="Minimum_Ferets_Diameter" usageType="active" missingValueReplacement="0.017670157" invalidValueTreatment="asMissing"></MiningField><MiningField name="Roundness" usageType="active" missingValueReplacement="0.0" invalidValueTreatment="asMissing"></MiningField><MiningField name="solubility" usageType="active" missingValueReplacement="0.0" invalidValueTreatment="asMissing"></MiningField><MiningField name="Minimum_projection_area" usageType="active" missingValueReplacement="-0.003162358" invalidValueTreatment="asMissing"></MiningField><MiningField name="Polarizability" usageType="active" missingValueReplacement="-0.019145704" invalidValueTreatment="asMissing"></MiningField><MiningField name="MinAbsEStateIndex" usageType="active" missingValueReplacement="0.0" invalidValueTreatment="asMissing"></MiningField><MiningField name="FpDensityMorgan1" usageType="active" missingValueReplacement="-0.008538245" invalidValueTreatment="asMissing"></MiningField><MiningField name="HallKierAlpha" usageType="active" missingValueReplacement="0.0" invalidValueTreatment="asMissing"></MiningField><MiningField name="Kappa3" usageType="active" missingValueReplacement="0.0" invalidValueTreatment="asMissing"></MiningField><MiningField name="Volume" usageType="active" missingValueReplacement="0.0" invalidValueTreatment="asMissing"></MiningField><MiningField name="Density" usageType="active" missingValueReplacement="0.0" invalidValueTreatment="asMissing"></MiningField><MiningField name="Exposure_time" usageType="active" missingValueReplacement="0.0" invalidValueTreatment="asMissing"></MiningField><MiningField name="Plant_growth" usageType="active" missingValueReplacement="0.0" invalidValueTreatment="asMissing"></MiningField><MiningField name="NP_concentration" usageType="active" missingValueReplacement="0.0" invalidValueTreatment="asMissing"></MiningField><MiningField name="Change_percent" usageType="predicted" invalidValueTreatment="asMissing"></MiningField></MiningSchema><Node id="1"><True></True><Node id="2"><SimplePredicate field="Circularity_#2" operator="lessOrEqual" value="-0.083333333"></SimplePredicate><Node id="4"><SimplePredicate field="Kappa3" operator="lessOrEqual" value="2.010901337"></SimplePredicate><Node id="8"><SimplePredicate field="Area" operator="lessOrEqual" value="1.025124688"></SimplePredicate><Node id="16"><SimplePredicate field="Polarizability" operator="lessOrEqual" value="0.143442245"></SimplePredicate><Node id="32" score="0.13434782608695653"><SimplePredicate field="MinAbsEStateIndex" operator="lessOrEqual" value="0.064390272"></SimplePredicate></Node><Node id="33" score="-0.02294117647058823"><True></True></Node></Node><Node id="17"><True></True><Node id="34" score="0.45"><SimplePredicate field="HallKierAlpha" operator="lessOrEqual" value="0.200815484"></SimplePredicate></Node><Node id="35" score="0.2571428571428572"><True></True></Node></Node></Node><Node id="9" score="-0.18666666666666665"><True></True></Node></Node><Node id="5"><True></True><Node id="10" score="0.35"><SimplePredicate field="NP_concentration" operator="lessOrEqual" value="-0.210526316"></SimplePredicate></Node><Node id="11" score="1.0528571428571427"><True></True></Node></Node></Node><Node id="3"><True></True><Node id="6"><SimplePredicate field="Density" operator="lessOrEqual" value="-0.593406593"></SimplePredicate><Node id="12"><SimplePredicate field="Exposure_time" operator="lessOrEqual" value="0.0"></SimplePredicate><Node id="24" score="-0.252"><SimplePredicate field="Extend" operator="lessOrEqual" value="0.666666667"></SimplePredicate></Node><Node id="25" score="0.3"><True></True></Node></Node><Node id="13"><True></True><Node id="26" score="0.38"><SimplePredicate field="Minimum_projection_area" operator="lessOrEqual" value="-0.327367015"></SimplePredicate></Node><Node id="27" score="0.33428571428571424"><True></True></Node></Node></Node><Node id="7"><True></True><Node id="14"><SimplePredicate field="Minimum_Ferets_Diameter" operator="lessOrEqual" value="-0.256020942"></SimplePredicate><Node id="28" score="0.305"><SimplePredicate field="FpDensityMorgan1" operator="lessOrEqual" value="-0.065096051"></SimplePredicate></Node><Node id="29"><True></True><Node id="58" score="-0.251"><SimplePredicate field="Volume" operator="lessOrEqual" value="-0.066951511"></SimplePredicate></Node><Node id="59" score="0.08307692307692308"><True></True></Node></Node></Node><Node id="15"><True></True><Node id="30"><SimplePredicate field="solubility" operator="lessOrEqual" value="-0.934920107"></SimplePredicate><Node id="60" score="0.072"><SimplePredicate field="Roundness" operator="lessOrEqual" value="-0.8"></SimplePredicate></Node><Node id="61" score="-0.06090909090909091"><True></True></Node></Node><Node id="31"><True></True><Node id="62" score="-0.2709090909090909"><SimplePredicate field="Plant_growth" operator="lessOrEqual" value="0.0"></SimplePredicate></Node><Node id="63" score="-0.11374999999999999"><True></True></Node></Node></Node></Node></Node></Node></TreeModel></Segment><Segment id="3"><True></True><TreeModel functionName="regression" splitCharacteristic="binarySplit"><MiningSchema><MiningField name="Extend" usageType="active" missingValueReplacement="0.0" invalidValueTreatment="asMissing"></MiningField><MiningField name="Diameter" usageType="active" missingValueReplacement="0.0" invalidValueTreatment="asMissing"></MiningField><MiningField name="Area" usageType="active" missingValueReplacement="0.0" invalidValueTreatment="asMissing"></MiningField><MiningField name="Circularity_#2" usageType="active" missingValueReplacement="-0.083333333" invalidValueTreatment="asMissing"></MiningField><MiningField name="Roundness" usageType="active" missingValueReplacement="0.0" invalidValueTreatment="asMissing"></MiningField><MiningField name="Minimum_projection_area" usageType="active" missingValueReplacement="-0.003162358" invalidValueTreatment="asMissing"></MiningField><MiningField name="MinAbsEStateIndex" usageType="active" missingValueReplacement="0.0" invalidValueTreatment="asMissing"></MiningField><MiningField name="HallKierAlpha" usageType="active" missingValueReplacement="0.0" invalidValueTreatment="asMissing"></MiningField><MiningField name="Kappa3" usageType="active" missingValueReplacement="0.0" invalidValueTreatment="asMissing"></MiningField><MiningField name="SlogP_VSA3" usageType="active" missingValueReplacement="0.0" invalidValueTreatment="asMissing"></MiningField><MiningField name="EState_VSA8" usageType="active" missingValueReplacement="0.0" invalidValueTreatment="asMissing"></MiningField><MiningField name="NP_volume" usageType="active" missingValueReplacement="0.0" invalidValueTreatment="asMissing"></MiningField><MiningField name="Change_percent" usageType="predicted" invalidValueTreatment="asMissing"></MiningField></MiningSchema><Node id="1"><True></True><Node id="2"><SimplePredicate field="EState_VSA8" operator="lessOrEqual" value="14.83964305"></SimplePredicate><Node id="4"><SimplePredicate field="Minimum_projection_area" operator="lessOrEqual" value="2.6402478"></SimplePredicate><Node id="8"><SimplePredicate field="Kappa3" operator="lessOrEqual" value="-0.135504566"></SimplePredicate><Node id="16"><SimplePredicate field="Roundness" operator="lessOrEqual" value="0.0"></SimplePredicate><Node id="32" score="0.17574074074074067"><SimplePredicate field="SlogP_VSA3" operator="lessOrEqual" value="0.154520571"></SimplePredicate></Node><Node id="33" score="0.59"><True></True></Node></Node><Node id="17"><True></True><Node id="34" score="-0.19466666666666665"><SimplePredicate field="Extend" operator="lessOrEqual" value="0.666666667"></SimplePredicate></Node><Node id="35" score="0.355"><True></True></Node></Node></Node><Node id="9"><True></True><Node id="18"><SimplePredicate field="NP_volume" operator="lessOrEqual" value="-0.134165049"></SimplePredicate><Node id="36" score="0.05500000000000001"><SimplePredicate field="HallKierAlpha" operator="lessOrEqual" value="0.200815484"></SimplePredicate></Node><Node id="37" score="-0.4666666666666666"><True></True></Node></Node><Node id="19"><True></True><Node id="38" score="0.17"><SimplePredicate field="Diameter" operator="lessOrEqual" value="-0.169536175"></SimplePredicate></Node><Node id="39" score="-0.11107142857142857"><True></True></Node></Node></Node></Node><Node id="5"><True></True><Node id="10" score="1.2300000000000002"><SimplePredicate field="Area" operator="lessOrEqual" value="-0.105214562"></SimplePredicate></Node><Node id="11"><True></True><Node id="22" score="-0.10428571428571429"><SimplePredicate field="MinAbsEStateIndex" operator="lessOrEqual" value="0.954971087"></SimplePredicate></Node><Node id="23"><True></True><Node id="46" score="0.5633333333333334"><SimplePredicate field="Circularity_#2" operator="lessOrEqual" value="-0.75"></SimplePredicate></Node><Node id="47" score="0.29714285714285715"><True></True></Node></Node></Node></Node></Node><Node id="3" score="-0.2946153846153846"><True></True></Node></Node></TreeModel></Segment><Segment id="4"><True></True><TreeModel functionName="regression" splitCharacteristic="binarySplit"><MiningSchema><MiningField name="Extend" usageType="active" missingValueReplacement="0.0" invalidValueTreatment="asMissing"></MiningField><MiningField name="Area" usageType="active" missingValueReplacement="0.0" invalidValueTreatment="asMissing"></MiningField><MiningField name="Circularity_#2" usageType="active" missingValueReplacement="-0.083333333" invalidValueTreatment="asMissing"></MiningField><MiningField name="solubility" usageType="active" missingValueReplacement="0.0" invalidValueTreatment="asMissing"></MiningField><MiningField name="Minimum_projection_area" usageType="active" missingValueReplacement="-0.003162358" invalidValueTreatment="asMissing"></MiningField><MiningField name="Maximum_projection_area" usageType="active" missingValueReplacement="0.0" invalidValueTreatment="asMissing"></MiningField><MiningField name="HallKierAlpha" usageType="active" missingValueReplacement="0.0" invalidValueTreatment="asMissing"></MiningField><MiningField name="Kappa3" usageType="active" missingValueReplacement="0.0" invalidValueTreatment="asMissing"></MiningField><MiningField name="EState_VSA2" usageType="active" missingValueReplacement="0.0" invalidValueTreatment="asMissing"></MiningField><MiningField name="Density" usageType="active" missingValueReplacement="0.0" invalidValueTreatment="asMissing"></MiningField><MiningField name="NP_volume" usageType="active" missingValueReplacement="0.0" invalidValueTreatment="asMissing"></MiningField><MiningField name="Exposure_time" usageType="active" missingValueReplacement="0.0" invalidValueTreatment="asMissing"></MiningField><MiningField name="Plant_growth" usageType="active" missingValueReplacement="0.0" invalidValueTreatment="asMissing"></MiningField><MiningField name="NP_concentration" usageType="active" missingValueReplacement="0.0" invalidValueTreatment="asMissing"></MiningField><MiningField name="Change_percent" usageType="predicted" invalidValueTreatment="asMissing"></MiningField></MiningSchema><Node id="1"><True></True><Node id="2"><SimplePredicate field="Kappa3" operator="lessOrEqual" value="2.010901337"></SimplePredicate><Node id="4"><SimplePredicate field="HallKierAlpha" operator="lessOrEqual" value="-0.418833907"></SimplePredicate><Node id="8"><SimplePredicate field="Exposure_time" operator="lessOrEqual" value="0.0"></SimplePredicate><Node id="16"><SimplePredicate field="NP_concentration" operator="lessOrEqual" value="1.052631579"></SimplePredicate><Node id="32" score="0.12342105263157896"><SimplePredicate field="Maximum_projection_area" operator="lessOrEqual" value="-0.073073629"></SimplePredicate></Node><Node id="33" score="-0.049999999999999996"><True></True></Node></Node><Node id="17" score="-0.07125000000000001"><True></True></Node></Node><Node id="9"><True></True><Node id="18" score="-0.11499999999999999"><SimplePredicate field="Area" operator="lessOrEqual" value="-0.052804239"></SimplePredicate></Node><Node id="19"><True></True><Node id="38" score="0.312"><SimplePredicate field="Circularity_#2" operator="lessOrEqual" value="-0.083333333"></SimplePredicate></Node><Node id="39" score="0.20600000000000002"><True></True></Node></Node></Node></Node><Node id="5"><True></True><Node id="10"><SimplePredicate field="Area" operator="lessOrEqual" value="-0.105214562"></SimplePredicate><Node id="20"><SimplePredicate field="EState_VSA2" operator="lessOrEqual" value="2.977317662"></SimplePredicate><Node id="40" score="0.28"><SimplePredicate field="Minimum_projection_area" operator="lessOrEqual" value="-0.110579909"></SimplePredicate></Node><Node id="41" score="0.2191666666666667"><True></True></Node></Node><Node id="21"><True></True><Node id="42" score="-0.38999999999999996"><SimplePredicate field="NP_volume" operator="lessOrEqual" value="-0.134165049"></SimplePredicate></Node><Node id="43" score="0.08625000000000001"><True></True></Node></Node></Node><Node id="11"><True></True><Node id="22"><SimplePredicate field="Density" operator="lessOrEqual" value="0.0"></SimplePredicate><Node id="44" score="0.024117647058823535"><SimplePredicate field="Extend" operator="lessOrEqual" value="0.166666667"></SimplePredicate></Node><Node id="45" score="-0.4025"><True></True></Node></Node><Node id="23"><True></True><Node id="46" score="-0.17833333333333334"><SimplePredicate field="NP_concentration" operator="lessOrEqual" value="1.052631579"></SimplePredicate></Node><Node id="47" score="-0.5"><True></True></Node></Node></Node></Node></Node><Node id="3"><True></True><Node id="6" score="1.2000000000000002"><SimplePredicate field="Extend" operator="lessOrEqual" value="0.666666667"></SimplePredicate></Node><Node id="7"><True></True><Node id="14"><SimplePredicate field="solubility" operator="lessOrEqual" value="0.0"></SimplePredicate><Node id="28" score="0.08"><SimplePredicate field="Plant_growth" operator="lessOrEqual" value="-0.333333333"></SimplePredicate></Node><Node id="29" score="0.415"><True></True></Node></Node><Node id="15" score="-0.0625"><True></True></Node></Node></Node></Node></TreeModel></Segment><Segment id="5"><True></True><TreeModel functionName="regression" splitCharacteristic="binarySplit"><MiningSchema><MiningField name="Perimeter" usageType="active" missingValueReplacement="0.0" invalidValueTreatment="asMissing"></MiningField><MiningField name="Extend" usageType="active" missingValueReplacement="0.0" invalidValueTreatment="asMissing"></MiningField><MiningField name="Area" usageType="active" missingValueReplacement="0.0" invalidValueTreatment="asMissing"></MiningField><MiningField name="Roundness" usageType="active" missingValueReplacement="0.0" invalidValueTreatment="asMissing"></MiningField><MiningField name="solubility" usageType="active" missingValueReplacement="0.0" invalidValueTreatment="asMissing"></MiningField><MiningField name="Maximum_projection_area" usageType="active" missingValueReplacement="0.0" invalidValueTreatment="asMissing"></MiningField><MiningField name="MinEStateIndex" usageType="active" missingValueReplacement="0.0" invalidValueTreatment="asMissing"></MiningField><MiningField name="BalabanJ" usageType="active" missingValueReplacement="0.0" invalidValueTreatment="asMissing"></MiningField><MiningField name="EState_VSA2" usageType="active" missingValueReplacement="0.0" invalidValueTreatment="asMissing"></MiningField><MiningField name="Plant_growth" usageType="active" missingValueReplacement="0.0" invalidValueTreatment="asMissing"></MiningField><MiningField name="NP_concentration" usageType="active" missingValueReplacement="0.0" invalidValueTreatment="asMissing"></MiningField><MiningField name="Change_percent" usageType="predicted" invalidValueTreatment="asMissing"></MiningField></MiningSchema><Node id="1"><True></True><Node id="2"><SimplePredicate field="MinEStateIndex" operator="lessOrEqual" value="9.935954966"></SimplePredicate><Node id="4"><SimplePredicate field="solubility" operator="lessOrEqual" value="1.032623169"></SimplePredicate><Node id="8"><SimplePredicate field="Plant_growth" operator="lessOrEqual" value="0.0"></SimplePredicate><Node id="16"><SimplePredicate field="Roundness" operator="lessOrEqual" value="0.342857143"></SimplePredicate><Node id="32" score="1.11"><SimplePredicate field="Perimeter" operator="lessOrEqual" value="-0.28238289"></SimplePredicate></Node><Node id="33" score="0.07962264150943396"><True></True></Node></Node><Node id="17"><True></True><Node id="34" score="-0.02"><SimplePredicate field="Area" operator="lessOrEqual" value="-0.105214562"></SimplePredicate></Node><Node id="35" score="-0.21875"><True></True></Node></Node></Node><Node id="9"><True></True><Node id="18"><SimplePredicate field="Extend" operator="lessOrEqual" value="0.666666667"></SimplePredicate><Node id="36" score="0.23153846153846158"><SimplePredicate field="Maximum_projection_area" operator="lessOrEqual" value="0.195475757"></SimplePredicate></Node><Node id="37" score="-0.0057142857142857195"><True></True></Node></Node><Node id="19"><True></True><Node id="38" score="0.4077777777777778"><SimplePredicate field="EState_VSA2" operator="lessOrEqual" value="0.0"></SimplePredicate></Node><Node id="39" score="-0.03"><True></True></Node></Node></Node></Node><Node id="5"><True></True><Node id="10"><SimplePredicate field="Extend" operator="lessOrEqual" value="0.166666667"></SimplePredicate><Node id="20"><SimplePredicate field="BalabanJ" operator="lessOrEqual" value="-0.273370735"></SimplePredicate><Node id="40" score="-0.4"><SimplePredicate field="Perimeter" operator="lessOrEqual" value="-0.28238289"></SimplePredicate></Node><Node id="41" score="-0.248"><True></True></Node></Node><Node id="21" score="0.0025000000000000022"><True></True></Node></Node><Node id="11"><True></True><Node id="22"><SimplePredicate field="EState_VSA2" operator="lessOrEqual" value="2.977317662"></SimplePredicate><Node id="44" score="0.19222222222222218"><SimplePredicate field="NP_concentration" operator="lessOrEqual" value="0.263157895"></SimplePredicate></Node><Node id="45" score="0.52"><True></True></Node></Node><Node id="23"><True></True><Node id="46" score="0.24666666666666667"><SimplePredicate field="Plant_growth" operator="lessOrEqual" value="-0.333333333"></SimplePredicate></Node><Node id="47" score="-0.22999999999999998"><True></True></Node></Node></Node></Node></Node><Node id="3"><True></True><Node id="6"><SimplePredicate field="NP_concentration" operator="lessOrEqual" value="0.263157895"></SimplePredicate><Node id="12"><SimplePredicate field="Roundness" operator="lessOrEqual" value="-0.228571429"></SimplePredicate><Node id="24" score="-0.24"><SimplePredicate field="Area" operator="lessOrEqual" value="1.025124688"></SimplePredicate></Node><Node id="25" score="-0.20600000000000002"><True></True></Node></Node><Node id="13"><True></True><Node id="26" score="-0.2425"><SimplePredicate field="NP_concentration" operator="lessOrEqual" value="-0.210526316"></SimplePredicate></Node><Node id="27" score="0.26"><True></True></Node></Node></Node><Node id="7"><True></True><Node id="14" score="-0.31"><SimplePredicate field="Plant_growth" operator="lessOrEqual" value="-0.333333333"></SimplePredicate></Node><Node id="15" score="-0.5711111111111111"><True></True></Node></Node></Node></Node></TreeModel></Segment><Segment id="6"><True></True><TreeModel functionName="regression" splitCharacteristic="binarySplit"><MiningSchema><MiningField name="Perimeter" usageType="active" missingValueReplacement="0.0" invalidValueTreatment="asMissing"></MiningField><MiningField name="Extend" usageType="active" missingValueReplacement="0.0" invalidValueTreatment="asMissing"></MiningField><MiningField name="Diameter" usageType="active" missingValueReplacement="0.0" invalidValueTreatment="asMissing"></MiningField><MiningField name="Circularity_#2" usageType="active" missingValueReplacement="-0.083333333" invalidValueTreatment="asMissing"></MiningField><MiningField name="solubility" usageType="active" missingValueReplacement="0.0" invalidValueTreatment="asMissing"></MiningField><MiningField name="Maximum_projection_area" usageType="active" missingValueReplacement="0.0" invalidValueTreatment="asMissing"></MiningField><MiningField name="MinAbsEStateIndex" usageType="active" missingValueReplacement="0.0" invalidValueTreatment="asMissing"></MiningField><MiningField name="FpDensityMorgan1" usageType="active" missingValueReplacement="-0.008538245" invalidValueTreatment="asMissing"></MiningField><MiningField name="HallKierAlpha" usageType="active" missingValueReplacement="0.0" invalidValueTreatment="asMissing"></MiningField><MiningField name="Kappa1" usageType="active" missingValueReplacement="0.0" invalidValueTreatment="asMissing"></MiningField><MiningField name="MolMR" usageType="active" missingValueReplacement="0.027333006" invalidValueTreatment="asMissing"></MiningField><MiningField name="Band_Gap" usageType="active" missingValueReplacement="0.0" invalidValueTreatment="asMissing"></MiningField><MiningField name="Amount_of_molecular_in_NP" usageType="active" missingValueReplacement="0.0" invalidValueTreatment="asMissing"></MiningField><MiningField name="Crystal_ionic_radii" usageType="active" missingValueReplacement="0.0" invalidValueTreatment="asMissing"></MiningField><MiningField name="Exposure_time" usageType="active" missingValueReplacement="0.0" invalidValueTreatment="asMissing"></MiningField><MiningField name="NP_concentration" usageType="active" missingValueReplacement="0.0" invalidValueTreatment="asMissing"></MiningField><MiningField name="Change_percent" usageType="predicted" invalidValueTreatment="asMissing"></MiningField></MiningSchema><Node id="1"><True></True><Node id="2"><SimplePredicate field="NP_concentration" operator="lessOrEqual" value="1.052631579"></SimplePredicate><Node id="4"><SimplePredicate field="HallKierAlpha" operator="lessOrEqual" value="-0.418833907"></SimplePredicate><Node id="8"><SimplePredicate field="Exposure_time" operator="lessOrEqual" value="0.0"></SimplePredicate><Node id="16"><SimplePredicate field="MolMR" operator="lessOrEqual" value="0.177469712"></SimplePredicate><Node id="32" score="0.14033333333333337"><SimplePredicate field="MinAbsEStateIndex" operator="lessOrEqual" value="-0.031293341"></SimplePredicate></Node><Node id="33" score="0.027777777777777776"><True></True></Node></Node><Node id="17" score="0.29200000000000004"><True></True></Node></Node><Node id="9"><True></True><Node id="18" score="0.5633333333333334"><SimplePredicate field="Circularity_#2" operator="lessOrEqual" value="-0.75"></SimplePredicate></Node><Node id="19"><True></True><Node id="38" score="0.346"><SimplePredicate field="Perimeter" operator="lessOrEqual" value="0.899515876"></SimplePredicate></Node><Node id="39" score="0.375"><True></True></Node></Node></Node></Node><Node id="5"><True></True><Node id="10"><SimplePredicate field="Crystal_ionic_radii" operator="lessOrEqual" value="0.0"></SimplePredicate><Node id="20"><SimplePredicate field="Extend" operator="lessOrEqual" value="-0.666666667"></SimplePredicate><Node id="40" score="0.2625"><SimplePredicate field="Diameter" operator="lessOrEqual" value="-0.169536175"></SimplePredicate></Node><Node id="41" score="0.06666666666666667"><True></True></Node></Node><Node id="21"><True></True><Node id="42" score="-0.1515217391304348"><SimplePredicate field="Band_Gap" operator="lessOrEqual" value="1.108708073"></SimplePredicate></Node><Node id="43" score="0.045000000000000005"><True></True></Node></Node></Node><Node id="11"><True></True><Node id="22"><SimplePredicate field="Kappa1" operator="lessOrEqual" value="2.056630768"></SimplePredicate><Node id="44" score="0.005000000000000001"><SimplePredicate field="solubility" operator="lessOrEqual" value="-0.934920107"></SimplePredicate></Node><Node id="45" score="0.11714285714285712"><True></True></Node></Node><Node id="23" score="0.43333333333333335"><True></True></Node></Node></Node></Node><Node id="3"><True></True><Node id="6"><SimplePredicate field="Maximum_projection_area" operator="lessOrEqual" value="0.195475757"></SimplePredicate><Node id="12"><SimplePredicate field="Circularity_#2" operator="lessOrEqual" value="0.083333333"></SimplePredicate><Node id="24"><SimplePredicate field="Circularity_#2" operator="lessOrEqual" value="-0.083333333"></SimplePredicate><Node id="48" score="-0.07749999999999999"><SimplePredicate field="Amount_of_molecular_in_NP" operator="lessOrEqual" value="-0.121511366"></SimplePredicate></Node><Node id="49" score="0.13"><True></True></Node></Node><Node id="25" score="0.38"><True></True></Node></Node><Node id="13"><True></True><Node id="26" score="-0.05800000000000001"><SimplePredicate field="FpDensityMorgan1" operator="lessOrEqual" value="-0.131211996"></SimplePredicate></Node><Node id="27" score="-0.34750000000000003"><True></True></Node></Node></Node><Node id="7"><True></True><Node id="14" score="-0.14500000000000002"><SimplePredicate field="Perimeter" operator="lessOrEqual" value="0.184709564"></SimplePredicate></Node><Node id="15" score="-0.48857142857142855"><True></True></Node></Node></Node></Node></TreeModel></Segment><Segment id="7"><True></True><TreeModel functionName="regression" splitCharacteristic="binarySplit"><MiningSchema><MiningField name="Perimeter" usageType="active" missingValueReplacement="0.0" invalidValueTreatment="asMissing"></MiningField><MiningField name="Extend" usageType="active" missingValueReplacement="0.0" invalidValueTreatment="asMissing"></MiningField><MiningField name="Diameter" usageType="active" missingValueReplacement="0.0" invalidValueTreatment="asMissing"></MiningField><MiningField name="Roundness" usageType="active" missingValueReplacement="0.0" invalidValueTreatment="asMissing"></MiningField><MiningField name="solubility" usageType="active" missingValueReplacement="0.0" invalidValueTreatment="asMissing"></MiningField><MiningField name="Minimum_projection_area" usageType="active" missingValueReplacement="-0.003162358" invalidValueTreatment="asMissing"></MiningField><MiningField name="Maximum_projection_area" usageType="active" missingValueReplacement="0.0" invalidValueTreatment="asMissing"></MiningField><MiningField name="MaxEStateIndex" usageType="active" missingValueReplacement="0.0" invalidValueTreatment="asMissing"></MiningField><MiningField name="FpDensityMorgan1" usageType="active" missingValueReplacement="-0.008538245" invalidValueTreatment="asMissing"></MiningField><MiningField name="Chi0v" usageType="active" missingValueReplacement="0.0" invalidValueTreatment="asMissing"></MiningField><MiningField name="Kappa1" usageType="active" missingValueReplacement="0.0" invalidValueTreatment="asMissing"></MiningField><MiningField name="Crystal_ionic_radii" usageType="active" missingValueReplacement="0.0" invalidValueTreatment="asMissing"></MiningField><MiningField name="Change_percent" usageType="predicted" invalidValueTreatment="asMissing"></MiningField></MiningSchema><Node id="1"><True></True><Node id="2"><SimplePredicate field="Minimum_projection_area" operator="lessOrEqual" value="2.6402478"></SimplePredicate><Node id="4"><SimplePredicate field="FpDensityMorgan1" operator="lessOrEqual" value="-0.065096051"></SimplePredicate><Node id="8"><SimplePredicate field="Chi0v" operator="lessOrEqual" value="-0.127623134"></SimplePredicate><Node id="16"><SimplePredicate field="MaxEStateIndex" operator="lessOrEqual" value="-0.075878807"></SimplePredicate><Node id="32" score="0.10476190476190476"><SimplePredicate field="Perimeter" operator="lessOrEqual" value="0.899515876"></SimplePredicate></Node><Node id="33" score="0.4"><True></True></Node></Node><Node id="17" score="-0.23"><True></True></Node></Node><Node id="9"><True></True><Node id="18"><SimplePredicate field="Crystal_ionic_radii" operator="lessOrEqual" value="1.230769231"></SimplePredicate><Node id="36" score="0.19999999999999998"><SimplePredicate field="Kappa1" operator="lessOrEqual" value="-0.333938938"></SimplePredicate></Node><Node id="37" score="0.3161538461538462"><True></True></Node></Node><Node id="19" score="0.042857142857142864"><True></True></Node></Node></Node><Node id="5"><True></True><Node id="10"><SimplePredicate field="Roundness" operator="lessOrEqual" value="-0.8"></SimplePredicate><Node id="20"><SimplePredicate field="Diameter" operator="lessOrEqual" value="0.185247907"></SimplePredicate><Node id="40" score="0.2833333333333333"><SimplePredicate field="Perimeter" operator="lessOrEqual" value="-0.28238289"></SimplePredicate></Node><Node id="41" score="0.14307692307692307"><True></True></Node></Node><Node id="21"><True></True><Node id="42" score="-0.028000000000000004"><SimplePredicate field="Minimum_projection_area" operator="lessOrEqual" value="0.139136083"></SimplePredicate></Node><Node id="43" score="-0.1542857142857143"><True></True></Node></Node></Node><Node id="11"><True></True><Node id="22" score="0.3433333333333333"><SimplePredicate field="Extend" operator="lessOrEqual" value="-0.666666667"></SimplePredicate></Node><Node id="23"><True></True><Node id="46" score="-0.36375"><SimplePredicate field="Maximum_projection_area" operator="lessOrEqual" value="-0.073073629"></SimplePredicate></Node><Node id="47" score="-0.09552631578947368"><True></True></Node></Node></Node></Node></Node><Node id="3"><True></True><Node id="6"><SimplePredicate field="solubility" operator="lessOrEqual" value="1.032623169"></SimplePredicate><Node id="12" score="0.8300000000000001"><SimplePredicate field="Perimeter" operator="lessOrEqual" value="0.184709564"></SimplePredicate></Node><Node id="13" score="0.3766666666666667"><True></True></Node></Node><Node id="7" score="-0.14500000000000002"><True></True></Node></Node></Node></TreeModel></Segment><Segment id="8"><True></True><TreeModel functionName="regression" splitCharacteristic="binarySplit"><MiningSchema><MiningField name="Extend" usageType="active" missingValueReplacement="0.0" invalidValueTreatment="asMissing"></MiningField><MiningField name="Circularity_#2" usageType="active" missingValueReplacement="-0.083333333" invalidValueTreatment="asMissing"></MiningField><MiningField name="Minimum_Ferets_Diameter" usageType="active" missingValueReplacement="0.017670157" invalidValueTreatment="asMissing"></MiningField><MiningField name="Minor_Axis" usageType="active" missingValueReplacement="0.002083643" invalidValueTreatment="asMissing"></MiningField><MiningField name="Minimum_projection_area" usageType="active" missingValueReplacement="-0.003162358" invalidValueTreatment="asMissing"></MiningField><MiningField name="FpDensityMorgan1" usageType="active" missingValueReplacement="-0.008538245" invalidValueTreatment="asMissing"></MiningField><MiningField name="EState_VSA8" usageType="active" missingValueReplacement="0.0" invalidValueTreatment="asMissing"></MiningField><MiningField name="Plant_growth" usageType="active" missingValueReplacement="0.0" invalidValueTreatment="asMissing"></MiningField><MiningField name="NP_concentration" usageType="active" missingValueReplacement="0.0" invalidValueTreatment="asMissing"></MiningField><MiningField name="Change_percent" usageType="predicted" invalidValueTreatment="asMissing"></MiningField></MiningSchema><Node id="1"><True></True><Node id="2"><SimplePredicate field="EState_VSA8" operator="lessOrEqual" value="14.83964305"></SimplePredicate><Node id="4"><SimplePredicate field="Minimum_projection_area" operator="lessOrEqual" value="2.6402478"></SimplePredicate><Node id="8"><SimplePredicate field="Plant_growth" operator="lessOrEqual" value="0.952380952"></SimplePredicate><Node id="16"><SimplePredicate field="FpDensityMorgan1" operator="lessOrEqual" value="-0.065096051"></SimplePredicate><Node id="32" score="0.0735135135135135"><SimplePredicate field="Circularity_#2" operator="lessOrEqual" value="0.583333333"></SimplePredicate></Node><Node id="33" score="0.3533333333333333"><True></True></Node></Node><Node id="17"><True></True><Node id="34" score="0.10833333333333334"><SimplePredicate field="Extend" operator="lessOrEqual" value="-0.666666667"></SimplePredicate></Node><Node id="35" score="-0.21153846153846154"><True></True></Node></Node></Node><Node id="9"><True></True><Node id="18"><SimplePredicate field="Circularity_#2" operator="lessOrEqual" value="0.083333333"></SimplePredicate><Node id="36" score="0.09375"><SimplePredicate field="NP_concentration" operator="lessOrEqual" value="-0.052631579"></SimplePredicate></Node><Node id="37" score="0.38142857142857134"><True></True></Node></Node><Node id="19" score="0.037500000000000006"><True></True></Node></Node></Node><Node id="5"><True></True><Node id="10" score="0.89"><SimplePredicate field="Minor_Axis" operator="lessOrEqual" value="0.111177259"></SimplePredicate></Node><Node id="11"><True></True><Node id="22" score="-0.0075"><SimplePredicate field="Minimum_Ferets_Diameter" operator="lessOrEqual" value="0.979057592"></SimplePredicate></Node><Node id="23" score="0.45"><True></True></Node></Node></Node></Node><Node id="3"><True></True><Node id="6"><SimplePredicate field="NP_concentration" operator="lessOrEqual" value="0.263157895"></SimplePredicate><Node id="12"><SimplePredicate field="Extend" operator="lessOrEqual" value="0.166666667"></SimplePredicate><Node id="24" score="-0.17333333333333334"><SimplePredicate field="NP_concentration" operator="lessOrEqual" value="-0.210526316"></SimplePredicate></Node><Node id="25" score="-0.095"><True></True></Node></Node><Node id="13" score="-0.17285714285714285"><True></True></Node></Node><Node id="7" score="-0.5025000000000001"><True></True></Node></Node></Node></TreeModel></Segment><Segment id="9"><True></True><TreeModel functionName="regression" splitCharacteristic="binarySplit"><MiningSchema><MiningField name="Perimeter" usageType="active" missingValueReplacement="0.0" invalidValueTreatment="asMissing"></MiningField><MiningField name="Extend" usageType="active" missingValueReplacement="0.0" invalidValueTreatment="asMissing"></MiningField><MiningField name="Diameter" usageType="active" missingValueReplacement="0.0" invalidValueTreatment="asMissing"></MiningField><MiningField name="Circularity_#2" usageType="active" missingValueReplacement="-0.083333333" invalidValueTreatment="asMissing"></MiningField><MiningField name="Minimum_Ferets_Diameter" usageType="active" missingValueReplacement="0.017670157" invalidValueTreatment="asMissing"></MiningField><MiningField name="logD" usageType="active" missingValueReplacement="0.0" invalidValueTreatment="asMissing"></MiningField><MiningField name="Minimum_projection_area" usageType="active" missingValueReplacement="-0.003162358" invalidValueTreatment="asMissing"></MiningField><MiningField name="MinEStateIndex" usageType="active" missingValueReplacement="0.0" invalidValueTreatment="asMissing"></MiningField><MiningField name="MinAbsEStateIndex" usageType="active" missingValueReplacement="0.0" invalidValueTreatment="asMissing"></MiningField><MiningField name="Kappa3" usageType="active" missingValueReplacement="0.0" invalidValueTreatment="asMissing"></MiningField><MiningField name="Density" usageType="active" missingValueReplacement="0.0" invalidValueTreatment="asMissing"></MiningField><MiningField name="Plant_growth" usageType="active" missingValueReplacement="0.0" invalidValueTreatment="asMissing"></MiningField><MiningField name="NP_concentration" usageType="active" missingValueReplacement="0.0" invalidValueTreatment="asMissing"></MiningField><MiningField name="Change_percent" usageType="predicted" invalidValueTreatment="asMissing"></MiningField></MiningSchema><Node id="1"><True></True><Node id="2"><SimplePredicate field="Density" operator="lessOrEqual" value="0.0"></SimplePredicate><Node id="4"><SimplePredicate field="Plant_growth" operator="lessOrEqual" value="0.952380952"></SimplePredicate><Node id="8"><SimplePredicate field="MinAbsEStateIndex" operator="lessOrEqual" value="-0.031293341"></SimplePredicate><Node id="16" score="0.365"><SimplePredicate field="logD" operator="lessOrEqual" value="0.0"></SimplePredicate></Node><Node id="17"><True></True><Node id="34" score="0.13909090909090913"><SimplePredicate field="Diameter" operator="lessOrEqual" value="0.185247907"></SimplePredicate></Node><Node id="35" score="0.2007142857142857"><True></True></Node></Node></Node><Node id="9"><True></True><Node id="18"><SimplePredicate field="NP_concentration" operator="lessOrEqual" value="1.052631579"></SimplePredicate><Node id="36" score="-0.28"><SimplePredicate field="Kappa3" operator="lessOrEqual" value="-0.135504566"></SimplePredicate></Node><Node id="37" score="0.007142857142857145"><True></True></Node></Node><Node id="19"><True></True><Node id="38" score="-0.62"><SimplePredicate field="Extend" operator="lessOrEqual" value="-0.666666667"></SimplePredicate></Node><Node id="39" score="-0.16"><True></True></Node></Node></Node></Node><Node id="5"><True></True><Node id="10"><SimplePredicate field="Perimeter" operator="lessOrEqual" value="-0.28238289"></SimplePredicate><Node id="20" score="0.26"><SimplePredicate field="MinEStateIndex" operator="lessOrEqual" value="-0.013293862"></SimplePredicate></Node><Node id="21" score="0.02"><True></True></Node></Node><Node id="11"><True></True><Node id="22"><SimplePredicate field="Perimeter" operator="lessOrEqual" value="0.184709564"></SimplePredicate><Node id="44" score="0.54"><SimplePredicate field="Perimeter" operator="lessOrEqual" value="-0.153343789"></SimplePredicate></Node><Node id="45" score="0.6833333333333332"><True></True></Node></Node><Node id="23"><True></True><Node id="46" score="0.10800000000000001"><SimplePredicate field="NP_concentration" operator="lessOrEqual" value="-0.210526316"></SimplePredicate></Node><Node id="47" score="0.38000000000000006"><True></True></Node></Node></Node></Node></Node><Node id="3"><True></True><Node id="6"><SimplePredicate field="Minimum_Ferets_Diameter" operator="lessOrEqual" value="-0.256020942"></SimplePredicate><Node id="12"><SimplePredicate field="Kappa3" operator="lessOrEqual" value="2.010901337"></SimplePredicate><Node id="24"><SimplePredicate field="MinAbsEStateIndex" operator="lessOrEqual" value="-0.045995169"></SimplePredicate><Node id="48" score="0.2966666666666667"><SimplePredicate field="Minimum_projection_area" operator="lessOrEqual" value="-0.110579909"></SimplePredicate></Node><Node id="49" score="-0.2975"><True></True></Node></Node><Node id="25"><True></True><Node id="50" score="0.11833333333333333"><SimplePredicate field="NP_concentration" operator="lessOrEqual" value="1.052631579"></SimplePredicate></Node><Node id="51" score="0.52"><True></True></Node></Node></Node><Node id="13" score="1.11"><True></True></Node></Node><Node id="7"><True></True><Node id="14"><SimplePredicate field="NP_concentration" operator="lessOrEqual" value="1.052631579"></SimplePredicate><Node id="28" score="0.145"><SimplePredicate field="Circularity_#2" operator="lessOrEqual" value="-0.75"></SimplePredicate></Node><Node id="29"><True></True><Node id="58" score="-0.22999999999999998"><SimplePredicate field="Circularity_#2" operator="lessOrEqual" value="0.083333333"></SimplePredicate></Node><Node id="59" score="-0.11130434782608696"><True></True></Node></Node></Node><Node id="15" score="-0.48142857142857143"><True></True></Node></Node></Node></Node></TreeModel></Segment></Segmentation></MiningModel></PMML>